digraph Tree {
node [shape=box] ;
0 [label="X[3] <= 0.048\ngini = 0.9\nsamples = 901\nvalue = [93, 91, 91, 89, 91, 90, 90, 92, 89, 85]"] ;
1 [label="X[9] <= 122.686\ngini = 0.447\nsamples = 99\nvalue = [0, 71, 2, 0, 1, 19, 1, 1, 2, 2]"] ;
0 -> 1 [labeldistance=2.5, labelangle=45, headlabel="True"] ;
2 [label="X[17] <= 1.02\ngini = 0.682\nsamples = 30\nvalue = [0, 7, 1, 0, 1, 15, 1, 1, 2, 2]"] ;
1 -> 2 ;
3 [label="gini = 0.48\nsamples = 10\nvalue = [0, 7, 1, 0, 0, 1, 0, 0, 1, 0]"] ;
2 -> 3 ;
4 [label="X[14] <= 275.982\ngini = 0.49\nsamples = 20\nvalue = [0, 0, 0, 0, 1, 14, 1, 1, 1, 2]"] ;
2 -> 4 ;
5 [label="gini = 0.227\nsamples = 16\nvalue = [0, 0, 0, 0, 0, 14, 0, 1, 0, 1]"] ;
4 -> 5 ;
6 [label="gini = 0.75\nsamples = 4\nvalue = [0, 0, 0, 0, 1, 0, 1, 0, 1, 1]"] ;
4 -> 6 ;
7 [label="X[39] <= 71.833\ngini = 0.136\nsamples = 69\nvalue = [0, 64, 1, 0, 0, 4, 0, 0, 0, 0]"] ;
1 -> 7 ;
8 [label="gini = 0.625\nsamples = 4\nvalue = [0, 1, 1, 0, 0, 2, 0, 0, 0, 0]"] ;
7 -> 8 ;
9 [label="X[4] <= 0.002\ngini = 0.06\nsamples = 65\nvalue = [0, 63, 0, 0, 0, 2, 0, 0, 0, 0]"] ;
7 -> 9 ;
10 [label="X[20] <= 37.19\ngini = 0.031\nsamples = 64\nvalue = [0, 63, 0, 0, 0, 1, 0, 0, 0, 0]"] ;
9 -> 10 ;
11 [label="gini = 0.0\nsamples = 62\nvalue = [0, 62, 0, 0, 0, 0, 0, 0, 0, 0]"] ;
10 -> 11 ;
12 [label="gini = 0.5\nsamples = 2\nvalue = [0, 1, 0, 0, 0, 1, 0, 0, 0, 0]"] ;
10 -> 12 ;
13 [label="gini = 0.0\nsamples = 1\nvalue = [0, 0, 0, 0, 0, 1, 0, 0, 0, 0]"] ;
9 -> 13 ;
14 [label="X[4] <= 0.006\ngini = 0.893\nsamples = 802\nvalue = [93, 20, 89, 89, 90, 71, 89, 91, 87, 83]"] ;
0 -> 14 [labeldistance=2.5, labelangle=-45, headlabel="False"] ;
15 [label="X[8] <= 915.213\ngini = 0.887\nsamples = 674\nvalue = [86, 20, 89, 84, 44, 70, 87, 33, 78, 83]"] ;
14 -> 15 ;
16 [label="X[13] <= 39.691\ngini = 0.516\nsamples = 68\nvalue = [4, 2, 8, 0, 0, 2, 46, 0, 0, 6]"] ;
15 -> 16 ;
17 [label="gini = 0.597\nsamples = 12\nvalue = [0, 2, 7, 0, 0, 1, 0, 0, 0, 2]"] ;
16 -> 17 ;
18 [label="X[35] <= 0.385\ngini = 0.314\nsamples = 56\nvalue = [4, 0, 1, 0, 0, 1, 46, 0, 0, 4]"] ;
16 -> 18 ;
19 [label="gini = 0.656\nsamples = 8\nvalue = [4, 0, 0, 0, 0, 1, 1, 0, 0, 2]"] ;
18 -> 19 ;
20 [label="X[30] <= 0.041\ngini = 0.119\nsamples = 48\nvalue = [0, 0, 1, 0, 0, 0, 45, 0, 0, 2]"] ;
18 -> 20 ;
21 [label="gini = 0.0\nsamples = 1\nvalue = [0, 0, 1, 0, 0, 0, 0, 0, 0, 0]"] ;
20 -> 21 ;
22 [label="X[12] <= 289.309\ngini = 0.081\nsamples = 47\nvalue = [0, 0, 0, 0, 0, 0, 45, 0, 0, 2]"] ;
20 -> 22 ;
23 [label="X[38] <= 0.093\ngini = 0.043\nsamples = 46\nvalue = [0, 0, 0, 0, 0, 0, 45, 0, 0, 1]"] ;
22 -> 23 ;
24 [label="gini = 0.0\nsamples = 44\nvalue = [0, 0, 0, 0, 0, 0, 44, 0, 0, 0]"] ;
23 -> 24 ;
25 [label="gini = 0.5\nsamples = 2\nvalue = [0, 0, 0, 0, 0, 0, 1, 0, 0, 1]"] ;
23 -> 25 ;
26 [label="gini = 0.0\nsamples = 1\nvalue = [0, 0, 0, 0, 0, 0, 0, 0, 0, 1]"] ;
22 -> 26 ;
27 [label="X[1] <= 4353.914\ngini = 0.886\nsamples = 606\nvalue = [82, 18, 81, 84, 44, 68, 41, 33, 78, 77]"] ;
15 -> 27 ;
28 [label="X[16] <= 121.452\ngini = 0.842\nsamples = 279\nvalue = [58, 16, 59, 4, 10, 51, 8, 5, 40, 28]"] ;
27 -> 28 ;
29 [label="X[41] <= 0.651\ngini = 0.701\nsamples = 73\nvalue = [4, 12, 2, 2, 0, 36, 7, 0, 1, 9]"] ;
28 -> 29 ;
30 [label="X[13] <= 52.622\ngini = 0.368\nsamples = 42\nvalue = [2, 2, 1, 0, 0, 33, 4, 0, 0, 0]"] ;
29 -> 30 ;
31 [label="X[30] <= 0.027\ngini = 0.199\nsamples = 37\nvalue = [2, 2, 0, 0, 0, 33, 0, 0, 0, 0]"] ;
30 -> 31 ;
32 [label="gini = 0.0\nsamples = 2\nvalue = [0, 2, 0, 0, 0, 0, 0, 0, 0, 0]"] ;
31 -> 32 ;
33 [label="X[29] <= 0.179\ngini = 0.108\nsamples = 35\nvalue = [2, 0, 0, 0, 0, 33, 0, 0, 0, 0]"] ;
31 -> 33 ;
34 [label="gini = 0.444\nsamples = 3\nvalue = [2, 0, 0, 0, 0, 1, 0, 0, 0, 0]"] ;
33 -> 34 ;
35 [label="gini = 0.0\nsamples = 32\nvalue = [0, 0, 0, 0, 0, 32, 0, 0, 0, 0]"] ;
33 -> 35 ;
36 [label="gini = 0.32\nsamples = 5\nvalue = [0, 0, 1, 0, 0, 0, 4, 0, 0, 0]"] ;
30 -> 36 ;
37 [label="X[1] <= 3252.549\ngini = 0.783\nsamples = 31\nvalue = [2, 10, 1, 2, 0, 3, 3, 0, 1, 9]"] ;
29 -> 37 ;
38 [label="gini = 0.0\nsamples = 10\nvalue = [0, 10, 0, 0, 0, 0, 0, 0, 0, 0]"] ;
37 -> 38 ;
39 [label="X[29] <= 0.375\ngini = 0.753\nsamples = 21\nvalue = [2, 0, 1, 2, 0, 3, 3, 0, 1, 9]"] ;
37 -> 39 ;
40 [label="gini = 0.79\nsamples = 9\nvalue = [2, 0, 1, 1, 0, 3, 1, 0, 1, 0]"] ;
39 -> 40 ;
41 [label="gini = 0.403\nsamples = 12\nvalue = [0, 0, 0, 1, 0, 0, 2, 0, 0, 9]"] ;
39 -> 41 ;
42 [label="X[6] <= 32.971\ngini = 0.802\nsamples = 206\nvalue = [54, 4, 57, 2, 10, 15, 1, 5, 39, 19]"] ;
28 -> 42 ;
43 [label="X[5] <= 20.44\ngini = 0.791\nsamples = 180\nvalue = [51, 4, 56, 2, 9, 14, 1, 5, 19, 19]"] ;
42 -> 43 ;
44 [label="X[26] <= 6.131\ngini = 0.8\nsamples = 65\nvalue = [22, 4, 2, 0, 4, 10, 1, 2, 13, 7]"] ;
43 -> 44 ;
45 [label="X[29] <= 0.28\ngini = 0.821\nsamples = 45\nvalue = [4, 2, 2, 0, 4, 10, 1, 2, 13, 7]"] ;
44 -> 45 ;
46 [label="gini = 0.524\nsamples = 15\nvalue = [2, 1, 1, 0, 1, 10, 0, 0, 0, 0]"] ;
45 -> 46 ;
47 [label="X[39] <= 132.599\ngini = 0.736\nsamples = 30\nvalue = [2, 1, 1, 0, 3, 0, 1, 2, 13, 7]"] ;
45 -> 47 ;
48 [label="X[6] <= 19.811\ngini = 0.789\nsamples = 21\nvalue = [2, 0, 1, 0, 3, 0, 1, 2, 5, 7]"] ;
47 -> 48 ;
49 [label="gini = 0.75\nsamples = 8\nvalue = [2, 0, 0, 0, 3, 0, 1, 1, 1, 0]"] ;
48 -> 49 ;
50 [label="gini = 0.604\nsamples = 13\nvalue = [0, 0, 1, 0, 0, 0, 0, 1, 4, 7]"] ;
48 -> 50 ;
51 [label="gini = 0.198\nsamples = 9\nvalue = [0, 1, 0, 0, 0, 0, 0, 0, 8, 0]"] ;
47 -> 51 ;
52 [label="X[41] <= 0.733\ngini = 0.18\nsamples = 20\nvalue = [18, 2, 0, 0, 0, 0, 0, 0, 0, 0]"] ;
44 -> 52 ;
53 [label="gini = 0.0\nsamples = 18\nvalue = [18, 0, 0, 0, 0, 0, 0, 0, 0, 0]"] ;
52 -> 53 ;
54 [label="gini = 0.0\nsamples = 2\nvalue = [0, 2, 0, 0, 0, 0, 0, 0, 0, 0]"] ;
52 -> 54 ;
55 [label="X[18] <= 341.295\ngini = 0.698\nsamples = 115\nvalue = [29, 0, 54, 2, 5, 4, 0, 3, 6, 12]"] ;
43 -> 55 ;
56 [label="X[20] <= 3.785\ngini = 0.601\nsamples = 77\nvalue = [7, 0, 47, 1, 3, 4, 0, 3, 6, 6]"] ;
55 -> 56 ;
57 [label="gini = 0.745\nsamples = 14\nvalue = [5, 0, 0, 0, 2, 1, 0, 0, 2, 4]"] ;
56 -> 57 ;
58 [label="X[36] <= 0.045\ngini = 0.432\nsamples = 63\nvalue = [2, 0, 47, 1, 1, 3, 0, 3, 4, 2]"] ;
56 -> 58 ;
59 [label="gini = 0.625\nsamples = 4\nvalue = [0, 0, 0, 0, 0, 1, 0, 2, 0, 1]"] ;
58 -> 59 ;
60 [label="X[40] <= 246.653\ngini = 0.357\nsamples = 59\nvalue = [2, 0, 47, 1, 1, 2, 0, 1, 4, 1]"] ;
58 -> 60 ;
61 [label="X[6] <= 15.691\ngini = 0.291\nsamples = 56\nvalue = [2, 0, 47, 1, 1, 2, 0, 0, 2, 1]"] ;
60 -> 61 ;
62 [label="gini = 0.5\nsamples = 2\nvalue = [0, 0, 0, 0, 1, 1, 0, 0, 0, 0]"] ;
61 -> 62 ;
63 [label="X[33] <= 0.418\ngini = 0.239\nsamples = 54\nvalue = [2, 0, 47, 1, 0, 1, 0, 0, 2, 1]"] ;
61 -> 63 ;
64 [label="X[38] <= 0.021\ngini = 0.125\nsamples = 46\nvalue = [0, 0, 43, 0, 0, 1, 0, 0, 1, 1]"] ;
63 -> 64 ;
65 [label="gini = 0.0\nsamples = 1\nvalue = [0, 0, 0, 0, 0, 0, 0, 0, 0, 1]"] ;
64 -> 65 ;
66 [label="X[27] <= 0.594\ngini = 0.086\nsamples = 45\nvalue = [0, 0, 43, 0, 0, 1, 0, 0, 1, 0]"] ;
64 -> 66 ;
67 [label="X[29] <= 0.201\ngini = 0.044\nsamples = 44\nvalue = [0, 0, 43, 0, 0, 1, 0, 0, 0, 0]"] ;
66 -> 67 ;
68 [label="gini = 0.5\nsamples = 2\nvalue = [0, 0, 1, 0, 0, 1, 0, 0, 0, 0]"] ;
67 -> 68 ;
69 [label="gini = 0.0\nsamples = 42\nvalue = [0, 0, 42, 0, 0, 0, 0, 0, 0, 0]"] ;
67 -> 69 ;
70 [label="gini = 0.0\nsamples = 1\nvalue = [0, 0, 0, 0, 0, 0, 0, 0, 1, 0]"] ;
66 -> 70 ;
71 [label="gini = 0.656\nsamples = 8\nvalue = [2, 0, 4, 1, 0, 0, 0, 0, 1, 0]"] ;
63 -> 71 ;
72 [label="gini = 0.444\nsamples = 3\nvalue = [0, 0, 0, 0, 0, 0, 0, 1, 2, 0]"] ;
60 -> 72 ;
73 [label="X[30] <= 0.047\ngini = 0.602\nsamples = 38\nvalue = [22, 0, 7, 1, 2, 0, 0, 0, 0, 6]"] ;
55 -> 73 ;
74 [label="gini = 0.58\nsamples = 10\nvalue = [2, 0, 6, 0, 1, 0, 0, 0, 0, 1]"] ;
73 -> 74 ;
75 [label="X[19] <= 13.585\ngini = 0.454\nsamples = 28\nvalue = [20, 0, 1, 1, 1, 0, 0, 0, 0, 5]"] ;
73 -> 75 ;
76 [label="X[40] <= 49.331\ngini = 0.288\nsamples = 24\nvalue = [20, 0, 0, 0, 1, 0, 0, 0, 0, 3]"] ;
75 -> 76 ;
77 [label="gini = 0.0\nsamples = 2\nvalue = [0, 0, 0, 0, 0, 0, 0, 0, 0, 2]"] ;
76 -> 77 ;
78 [label="X[36] <= 0.125\ngini = 0.169\nsamples = 22\nvalue = [20, 0, 0, 0, 1, 0, 0, 0, 0, 1]"] ;
76 -> 78 ;
79 [label="X[20] <= 4.194\ngini = 0.091\nsamples = 21\nvalue = [20, 0, 0, 0, 1, 0, 0, 0, 0, 0]"] ;
78 -> 79 ;
80 [label="gini = 0.0\nsamples = 1\nvalue = [0, 0, 0, 0, 1, 0, 0, 0, 0, 0]"] ;
79 -> 80 ;
81 [label="gini = 0.0\nsamples = 20\nvalue = [20, 0, 0, 0, 0, 0, 0, 0, 0, 0]"] ;
79 -> 81 ;
82 [label="gini = 0.0\nsamples = 1\nvalue = [0, 0, 0, 0, 0, 0, 0, 0, 0, 1]"] ;
78 -> 82 ;
83 [label="gini = 0.625\nsamples = 4\nvalue = [0, 0, 1, 1, 0, 0, 0, 0, 0, 2]"] ;
75 -> 83 ;
84 [label="X[29] <= 0.308\ngini = 0.391\nsamples = 26\nvalue = [3, 0, 1, 0, 1, 1, 0, 0, 20, 0]"] ;
42 -> 84 ;
85 [label="gini = 0.667\nsamples = 6\nvalue = [3, 0, 1, 0, 0, 1, 0, 0, 1, 0]"] ;
84 -> 85 ;
86 [label="X[8] <= 2908.947\ngini = 0.095\nsamples = 20\nvalue = [0, 0, 0, 0, 1, 0, 0, 0, 19, 0]"] ;
84 -> 86 ;
87 [label="gini = 0.0\nsamples = 1\nvalue = [0, 0, 0, 0, 1, 0, 0, 0, 0, 0]"] ;
86 -> 87 ;
88 [label="gini = 0.0\nsamples = 19\nvalue = [0, 0, 0, 0, 0, 0, 0, 0, 19, 0]"] ;
86 -> 88 ;
89 [label="X[13] <= 46.914\ngini = 0.863\nsamples = 327\nvalue = [24, 2, 22, 80, 34, 17, 33, 28, 38, 49]"] ;
27 -> 89 ;
90 [label="X[14] <= 127.242\ngini = 0.829\nsamples = 231\nvalue = [4, 2, 19, 71, 21, 17, 3, 28, 33, 33]"] ;
89 -> 90 ;
91 [label="X[11] <= -4.759\ngini = 0.733\nsamples = 36\nvalue = [1, 2, 2, 3, 1, 15, 1, 1, 0, 10]"] ;
90 -> 91 ;
92 [label="gini = 0.71\nsamples = 18\nvalue = [1, 2, 1, 2, 1, 0, 1, 1, 0, 9]"] ;
91 -> 92 ;
93 [label="gini = 0.296\nsamples = 18\nvalue = [0, 0, 1, 1, 0, 15, 0, 0, 0, 1]"] ;
91 -> 93 ;
94 [label="X[2] <= 0.089\ngini = 0.798\nsamples = 195\nvalue = [3, 0, 17, 68, 20, 2, 2, 27, 33, 23]"] ;
90 -> 94 ;
95 [label="X[35] <= 0.279\ngini = 0.711\nsamples = 38\nvalue = [0, 0, 3, 2, 6, 0, 0, 6, 18, 3]"] ;
94 -> 95 ;
96 [label="gini = 0.32\nsamples = 5\nvalue = [0, 0, 0, 0, 0, 0, 0, 4, 0, 1]"] ;
95 -> 96 ;
97 [label="X[22] <= 8.885\ngini = 0.65\nsamples = 33\nvalue = [0, 0, 3, 2, 6, 0, 0, 2, 18, 2]"] ;
95 -> 97 ;
98 [label="gini = 0.765\nsamples = 14\nvalue = [0, 0, 2, 2, 5, 0, 0, 0, 3, 2]"] ;
97 -> 98 ;
99 [label="gini = 0.36\nsamples = 19\nvalue = [0, 0, 1, 0, 1, 0, 0, 2, 15, 0]"] ;
97 -> 99 ;
100 [label="X[18] <= 53.272\ngini = 0.763\nsamples = 157\nvalue = [3, 0, 14, 66, 14, 2, 2, 21, 15, 20]"] ;
94 -> 100 ;
101 [label="X[39] <= 81.466\ngini = 0.775\nsamples = 26\nvalue = [1, 0, 7, 1, 1, 1, 1, 0, 7, 7]"] ;
100 -> 101 ;
102 [label="gini = 0.463\nsamples = 11\nvalue = [0, 0, 4, 0, 0, 0, 0, 0, 7, 0]"] ;
101 -> 102 ;
103 [label="gini = 0.72\nsamples = 15\nvalue = [1, 0, 3, 1, 1, 1, 1, 0, 0, 7]"] ;
101 -> 103 ;
104 [label="X[17] <= 32.282\ngini = 0.701\nsamples = 131\nvalue = [2, 0, 7, 65, 13, 1, 1, 21, 8, 13]"] ;
100 -> 104 ;
105 [label="X[41] <= 0.655\ngini = 0.652\nsamples = 112\nvalue = [0, 0, 5, 62, 12, 1, 0, 11, 8, 13]"] ;
104 -> 105 ;
106 [label="X[4] <= 0.002\ngini = 0.786\nsamples = 23\nvalue = [0, 0, 0, 5, 7, 1, 0, 2, 3, 5]"] ;
105 -> 106 ;
107 [label="gini = 0.0\nsamples = 4\nvalue = [0, 0, 0, 0, 4, 0, 0, 0, 0, 0]"] ;
106 -> 107 ;
108 [label="gini = 0.798\nsamples = 19\nvalue = [0, 0, 0, 5, 3, 1, 0, 2, 3, 5]"] ;
106 -> 108 ;
109 [label="X[5] <= 23.418\ngini = 0.562\nsamples = 89\nvalue = [0, 0, 5, 57, 5, 0, 0, 9, 5, 8]"] ;
105 -> 109 ;
110 [label="X[15] <= -7.83\ngini = 0.713\nsamples = 51\nvalue = [0, 0, 3, 24, 4, 0, 0, 9, 4, 7]"] ;
109 -> 110 ;
111 [label="gini = 0.124\nsamples = 15\nvalue = [0, 0, 1, 14, 0, 0, 0, 0, 0, 0]"] ;
110 -> 111 ;
112 [label="X[0] <= 3541.513\ngini = 0.795\nsamples = 36\nvalue = [0, 0, 2, 10, 4, 0, 0, 9, 4, 7]"] ;
110 -> 112 ;
113 [label="X[26] <= 2.516\ngini = 0.795\nsamples = 32\nvalue = [0, 0, 2, 10, 4, 0, 0, 5, 4, 7]"] ;
112 -> 113 ;
114 [label="gini = 0.645\nsamples = 11\nvalue = [0, 0, 1, 1, 1, 0, 0, 0, 2, 6]"] ;
113 -> 114 ;
115 [label="X[19] <= 5.718\ngini = 0.726\nsamples = 21\nvalue = [0, 0, 1, 9, 3, 0, 0, 5, 2, 1]"] ;
113 -> 115 ;
116 [label="gini = 0.0\nsamples = 7\nvalue = [0, 0, 0, 7, 0, 0, 0, 0, 0, 0]"] ;
115 -> 116 ;
117 [label="gini = 0.776\nsamples = 14\nvalue = [0, 0, 1, 2, 3, 0, 0, 5, 2, 1]"] ;
115 -> 117 ;
118 [label="gini = 0.0\nsamples = 4\nvalue = [0, 0, 0, 0, 0, 0, 0, 4, 0, 0]"] ;
112 -> 118 ;
119 [label="X[29] <= 0.506\ngini = 0.241\nsamples = 38\nvalue = [0, 0, 2, 33, 1, 0, 0, 0, 1, 1]"] ;
109 -> 119 ;
120 [label="X[6] <= 21.369\ngini = 0.156\nsamples = 36\nvalue = [0, 0, 2, 33, 0, 0, 0, 0, 0, 1]"] ;
119 -> 120 ;
121 [label="gini = 0.444\nsamples = 3\nvalue = [0, 0, 2, 1, 0, 0, 0, 0, 0, 0]"] ;
120 -> 121 ;
122 [label="X[25] <= 4.125\ngini = 0.059\nsamples = 33\nvalue = [0, 0, 0, 32, 0, 0, 0, 0, 0, 1]"] ;
120 -> 122 ;
123 [label="gini = 0.0\nsamples = 32\nvalue = [0, 0, 0, 32, 0, 0, 0, 0, 0, 0]"] ;
122 -> 123 ;
124 [label="gini = 0.0\nsamples = 1\nvalue = [0, 0, 0, 0, 0, 0, 0, 0, 0, 1]"] ;
122 -> 124 ;
125 [label="gini = 0.5\nsamples = 2\nvalue = [0, 0, 0, 0, 1, 0, 0, 0, 1, 0]"] ;
119 -> 125 ;
126 [label="gini = 0.67\nsamples = 19\nvalue = [2, 0, 2, 3, 1, 0, 1, 10, 0, 0]"] ;
104 -> 126 ;
127 [label="X[11] <= -27.553\ngini = 0.8\nsamples = 96\nvalue = [20, 0, 3, 9, 13, 0, 30, 0, 5, 16]"] ;
89 -> 127 ;
128 [label="X[27] <= 0.356\ngini = 0.429\nsamples = 30\nvalue = [0, 0, 0, 1, 2, 0, 22, 0, 0, 5]"] ;
127 -> 128 ;
129 [label="gini = 0.32\nsamples = 5\nvalue = [0, 0, 0, 1, 0, 0, 0, 0, 0, 4]"] ;
128 -> 129 ;
130 [label="X[30] <= 0.084\ngini = 0.218\nsamples = 25\nvalue = [0, 0, 0, 0, 2, 0, 22, 0, 0, 1]"] ;
128 -> 130 ;
131 [label="X[32] <= 0.045\ngini = 0.153\nsamples = 24\nvalue = [0, 0, 0, 0, 2, 0, 22, 0, 0, 0]"] ;
130 -> 131 ;
132 [label="gini = 0.0\nsamples = 1\nvalue = [0, 0, 0, 0, 1, 0, 0, 0, 0, 0]"] ;
131 -> 132 ;
133 [label="X[41] <= 0.784\ngini = 0.083\nsamples = 23\nvalue = [0, 0, 0, 0, 1, 0, 22, 0, 0, 0]"] ;
131 -> 133 ;
134 [label="gini = 0.0\nsamples = 21\nvalue = [0, 0, 0, 0, 0, 0, 21, 0, 0, 0]"] ;
133 -> 134 ;
135 [label="gini = 0.5\nsamples = 2\nvalue = [0, 0, 0, 0, 1, 0, 1, 0, 0, 0]"] ;
133 -> 135 ;
136 [label="gini = 0.0\nsamples = 1\nvalue = [0, 0, 0, 0, 0, 0, 0, 0, 0, 1]"] ;
130 -> 136 ;
137 [label="X[10] <= 270.408\ngini = 0.815\nsamples = 66\nvalue = [20, 0, 3, 8, 11, 0, 8, 0, 5, 11]"] ;
127 -> 137 ;
138 [label="gini = 0.0\nsamples = 9\nvalue = [9, 0, 0, 0, 0, 0, 0, 0, 0, 0]"] ;
137 -> 138 ;
139 [label="X[10] <= 899.257\ngini = 0.838\nsamples = 57\nvalue = [11, 0, 3, 8, 11, 0, 8, 0, 5, 11]"] ;
137 -> 139 ;
140 [label="X[29] <= 0.463\ngini = 0.815\nsamples = 52\nvalue = [11, 0, 3, 8, 11, 0, 8, 0, 0, 11]"] ;
139 -> 140 ;
141 [label="X[19] <= 3.387\ngini = 0.788\nsamples = 40\nvalue = [11, 0, 3, 8, 3, 0, 4, 0, 0, 11]"] ;
140 -> 141 ;
142 [label="gini = 0.672\nsamples = 16\nvalue = [1, 0, 0, 8, 1, 0, 3, 0, 0, 3]"] ;
141 -> 142 ;
143 [label="X[5] <= 18.78\ngini = 0.691\nsamples = 24\nvalue = [10, 0, 3, 0, 2, 0, 1, 0, 0, 8]"] ;
141 -> 143 ;
144 [label="gini = 0.0\nsamples = 5\nvalue = [0, 0, 0, 0, 0, 0, 0, 0, 0, 5]"] ;
143 -> 144 ;
145 [label="gini = 0.659\nsamples = 19\nvalue = [10, 0, 3, 0, 2, 0, 1, 0, 0, 3]"] ;
143 -> 145 ;
146 [label="gini = 0.444\nsamples = 12\nvalue = [0, 0, 0, 0, 8, 0, 4, 0, 0, 0]"] ;
140 -> 146 ;
147 [label="gini = 0.0\nsamples = 5\nvalue = [0, 0, 0, 0, 0, 0, 0, 0, 5, 0]"] ;
139 -> 147 ;
148 [label="X[1] <= 6425.041\ngini = 0.656\nsamples = 128\nvalue = [7, 0, 0, 5, 46, 1, 2, 58, 9, 0]"] ;
14 -> 148 ;
149 [label="X[35] <= 0.331\ngini = 0.626\nsamples = 69\nvalue = [7, 0, 0, 5, 40, 1, 2, 8, 6, 0]"] ;
148 -> 149 ;
150 [label="gini = 0.742\nsamples = 19\nvalue = [3, 0, 0, 1, 1, 1, 1, 8, 4, 0]"] ;
149 -> 150 ;
151 [label="X[9] <= 116.612\ngini = 0.377\nsamples = 50\nvalue = [4, 0, 0, 4, 39, 0, 1, 0, 2, 0]"] ;
149 -> 151 ;
152 [label="X[41] <= 0.695\ngini = 0.301\nsamples = 47\nvalue = [1, 0, 0, 4, 39, 0, 1, 0, 2, 0]"] ;
151 -> 152 ;
153 [label="X[34] <= 0.051\ngini = 0.179\nsamples = 42\nvalue = [1, 0, 0, 1, 38, 0, 1, 0, 1, 0]"] ;
152 -> 153 ;
154 [label="gini = 0.0\nsamples = 1\nvalue = [0, 0, 0, 0, 0, 0, 0, 0, 1, 0]"] ;
153 -> 154 ;
155 [label="X[6] <= 15.523\ngini = 0.139\nsamples = 41\nvalue = [1, 0, 0, 1, 38, 0, 1, 0, 0, 0]"] ;
153 -> 155 ;
156 [label="gini = 0.0\nsamples = 1\nvalue = [1, 0, 0, 0, 0, 0, 0, 0, 0, 0]"] ;
155 -> 156 ;
157 [label="X[24] <= 0.743\ngini = 0.096\nsamples = 40\nvalue = [0, 0, 0, 1, 38, 0, 1, 0, 0, 0]"] ;
155 -> 157 ;
158 [label="gini = 0.0\nsamples = 1\nvalue = [0, 0, 0, 0, 0, 0, 1, 0, 0, 0]"] ;
157 -> 158 ;
159 [label="X[40] <= 207.05\ngini = 0.05\nsamples = 39\nvalue = [0, 0, 0, 1, 38, 0, 0, 0, 0, 0]"] ;
157 -> 159 ;
160 [label="gini = 0.0\nsamples = 37\nvalue = [0, 0, 0, 0, 37, 0, 0, 0, 0, 0]"] ;
159 -> 160 ;
161 [label="gini = 0.5\nsamples = 2\nvalue = [0, 0, 0, 1, 1, 0, 0, 0, 0, 0]"] ;
159 -> 161 ;
162 [label="gini = 0.56\nsamples = 5\nvalue = [0, 0, 0, 3, 1, 0, 0, 0, 1, 0]"] ;
152 -> 162 ;
163 [label="gini = 0.0\nsamples = 3\nvalue = [3, 0, 0, 0, 0, 0, 0, 0, 0, 0]"] ;
151 -> 163 ;
164 [label="X[5] <= 26.587\ngini = 0.269\nsamples = 59\nvalue = [0, 0, 0, 0, 6, 0, 0, 50, 3, 0]"] ;
148 -> 164 ;
165 [label="X[9] <= 31.541\ngini = 0.169\nsamples = 55\nvalue = [0, 0, 0, 0, 2, 0, 0, 50, 3, 0]"] ;
164 -> 165 ;
166 [label="gini = 0.0\nsamples = 2\nvalue = [0, 0, 0, 0, 2, 0, 0, 0, 0, 0]"] ;
165 -> 166 ;
167 [label="X[35] <= 0.635\ngini = 0.107\nsamples = 53\nvalue = [0, 0, 0, 0, 0, 0, 0, 50, 3, 0]"] ;
165 -> 167 ;
168 [label="X[36] <= 0.129\ngini = 0.038\nsamples = 51\nvalue = [0, 0, 0, 0, 0, 0, 0, 50, 1, 0]"] ;
167 -> 168 ;
169 [label="gini = 0.0\nsamples = 50\nvalue = [0, 0, 0, 0, 0, 0, 0, 50, 0, 0]"] ;
168 -> 169 ;
170 [label="gini = 0.0\nsamples = 1\nvalue = [0, 0, 0, 0, 0, 0, 0, 0, 1, 0]"] ;
168 -> 170 ;
171 [label="gini = 0.0\nsamples = 2\nvalue = [0, 0, 0, 0, 0, 0, 0, 0, 2, 0]"] ;
167 -> 171 ;
172 [label="gini = 0.0\nsamples = 4\nvalue = [0, 0, 0, 0, 4, 0, 0, 0, 0, 0]"] ;
164 -> 172 ;
}